Language model created by QuickLM on Tue Sep  1 16:03:58 EDT 2015
Copyright (c) 1996-2010 Carnegie Mellon University and Alexander I. Rudnicky

The model is in standard ARPA format, designed by Doug Paul while he was at MITRE.

The code that was used to produce this language model is available in Open Source.
Please visit http://www.speech.cs.cmu.edu/tools/ for more information

The (fixed) discount mass is 0.5. The backoffs are computed using the ratio method.
This model based on a corpus of 64 sentences and 104 words

\data\
ngram 1=104
ngram 2=179
ngram 3=132

\1-grams:
-0.9181 </s> -0.3010
-0.9181 <s> -0.2405
-2.4232 A -0.2994
-2.7243 ACTIVATE -0.3002
-2.4232 AND -0.2994
-2.7243 ARE -0.2994
-2.7243 BATTLE -0.2986
-2.7243 BLUE -0.2451
-2.7243 BOGEY -0.3002
-2.7243 BRIGHTNESS -0.2451
-2.4232 CAMERA -0.2414
-2.4232 CAN -0.2994
-2.7243 CHARGE -0.2977
-2.7243 CLOSE -0.2451
-2.7243 COLORS -0.2451
-2.7243 DEFAULT -0.2451
-2.7243 DELETED -0.3002
-2.4232 DESTRUCT -0.2953
-2.7243 DISABLE -0.2451
-2.7243 DO -0.2994
-2.4232 DOWN -0.2451
-2.7243 EIGHTY -0.2451
-2.7243 ENABLE -0.2451
-2.7243 ENEMY -0.2451
-2.7243 ENGAGE -0.2451
-2.7243 EXWIFE -0.2451
-2.7243 FACEPLATE -0.2451
-2.7243 FIFTY -0.2451
-2.7243 FLASHLIGHT -0.2451
-2.7243 FOR -0.2994
-2.7243 FORTY -0.2451
-2.7243 GREEN -0.2451
-2.7243 HACK -0.3002
-2.7243 HAVE -0.2994
-2.7243 HELM -0.2451
-2.7243 HELMET -0.2451
-2.7243 HELP -0.2986
-2.7243 HOT -0.2451
-2.7243 HUNDRED -0.2451
-2.7243 I -0.3002
-2.7243 INCLUDE -0.3002
-2.7243 INDIGO -0.2451
-2.4232 INITIATE -0.2994
-2.7243 INTO -0.2986
-2.7243 IS -0.3002
-2.7243 IT -0.2451
-2.7243 JARVIS -0.2451
-2.4232 LATE -0.2451
-2.7243 LID -0.2451
-2.1222 LIGHTS -0.2944
-2.7243 MAKE -0.3002
-2.2472 MODE -0.2451
-2.7243 MUTE -0.2451
-2.7243 NINETY -0.2451
-2.4232 OFF -0.2451
-2.1222 ON -0.2423
-2.7243 ONE -0.3002
-2.7243 OPEN -0.3002
-2.7243 ORANGE -0.2451
-2.7243 PARTY -0.2986
-2.4232 PERCENT -0.2442
-2.7243 PERSON -0.3002
-2.7243 PERSONS -0.2994
-2.4232 PHONE -0.2442
-2.4232 PHOTO -0.2451
-2.7243 PICTURES -0.2994
-2.7243 POWER -0.2994
-2.7243 REBOOT -0.2451
-2.7243 RECORDS -0.2451
-2.7243 RED -0.2451
-2.7243 RELAX -0.2451
-2.4232 SELF -0.2994
-2.4232 SET -0.2944
-2.7243 SEVENTY -0.2451
-2.7243 SHUTDOWN -0.2451
-2.7243 SIXTY -0.2451
-2.7243 SPOTTED -0.2451
-2.7243 STAND -0.2994
-2.7243 STOP -0.2994
-2.7243 TAKE -0.2994
-2.7243 TEN -0.2994
-2.7243 THANKS -0.2451
-2.1222 THE -0.2961
-2.2472 THEIR -0.2977
-2.7243 THIRTY -0.2451
-2.2472 THIS -0.2986
-2.4232 TIME -0.2994
-2.4232 TO -0.2986
-2.2472 TURN -0.2953
-2.7243 TWENTY -0.2451
-2.4232 UNIBEAM -0.2451
-2.7243 UNMUTE -0.2451
-2.7243 UP -0.2451
-2.7243 US -0.2994
-2.7243 VIDEOS -0.2451
-2.7243 VIOLET -0.2451
-2.7243 VOLUME -0.2451
-2.4232 WE -0.2986
-2.7243 WHAT -0.2994
-2.7243 WHITE -0.2451
-2.7243 WILL -0.2986
-2.7243 WITH -0.2986
-2.7243 YELLOW -0.2451
-2.7243 YOU -0.3002

\2-grams:
-2.1072 <s> ACTIVATE 0.0000
-2.1072 <s> ARE 0.0000
-2.1072 <s> BATTLE 0.0000
-2.1072 <s> BLUE 0.0000
-2.1072 <s> BOGEY 0.0000
-1.8062 <s> CAN 0.0000
-2.1072 <s> CHARGE 0.0000
-2.1072 <s> CLOSE 0.0000
-2.1072 <s> COLORS 0.0000
-2.1072 <s> DEFAULT 0.0000
-2.1072 <s> DISABLE 0.0000
-2.1072 <s> DO 0.0000
-2.1072 <s> DOWN 0.0000
-2.1072 <s> EIGHTY 0.0000
-2.1072 <s> ENABLE 0.0000
-2.1072 <s> ENEMY 0.0000
-2.1072 <s> ENGAGE 0.0000
-2.1072 <s> EXWIFE 0.0000
-2.1072 <s> FACEPLATE 0.0000
-2.1072 <s> FIFTY 0.0000
-2.1072 <s> FLASHLIGHT 0.0000
-2.1072 <s> FORTY 0.0000
-2.1072 <s> GREEN 0.0000
-2.1072 <s> HACK 0.0000
-2.1072 <s> HELM 0.0000
-2.1072 <s> HELMET 0.0000
-2.1072 <s> HOT 0.0000
-2.1072 <s> INCLUDE 0.0000
-2.1072 <s> INDIGO 0.0000
-1.8062 <s> INITIATE 0.0000
-2.1072 <s> JARVIS 0.0000
-2.1072 <s> MUTE 0.0000
-2.1072 <s> NINETY 0.0000
-2.1072 <s> ON -0.0969
-2.1072 <s> ONE 0.0000
-2.1072 <s> OPEN 0.0000
-2.1072 <s> ORANGE 0.0000
-2.1072 <s> POWER 0.0000
-2.1072 <s> REBOOT 0.0000
-2.1072 <s> RELAX 0.0000
-1.8062 <s> SET 0.0000
-2.1072 <s> SEVENTY 0.0000
-2.1072 <s> SHUTDOWN 0.0000
-2.1072 <s> SIXTY 0.0000
-2.1072 <s> STAND 0.0000
-2.1072 <s> TEN 0.0000
-2.1072 <s> THANKS 0.0000
-2.1072 <s> THIRTY 0.0000
-1.6301 <s> TURN 0.0000
-2.1072 <s> TWENTY 0.0000
-2.1072 <s> UNIBEAM 0.0000
-2.1072 <s> UNMUTE 0.0000
-2.1072 <s> UP 0.0000
-2.1072 <s> VIOLET 0.0000
-2.1072 <s> VOLUME 0.0000
-2.1072 <s> WHAT 0.0000
-2.1072 <s> WHITE 0.0000
-2.1072 <s> WILL 0.0000
-2.1072 <s> YELLOW 0.0000
-0.3010 A PHOTO 0.0000
-0.3010 ACTIVATE PARTY 0.0000
-0.6021 AND TAKE 0.0000
-0.6021 AND VIDEOS 0.0000
-0.3010 ARE WE -0.1761
-0.3010 BATTLE MODE 0.0000
-0.3010 BLUE </s> -0.3010
-0.3010 BOGEY SPOTTED 0.0000
-0.3010 BRIGHTNESS </s> -0.3010
-0.6021 CAMERA </s> -0.3010
-0.6021 CAMERA ON -0.0969
-0.6021 CAN I 0.0000
-0.6021 CAN YOU 0.0000
-0.3010 CHARGE THE -0.2430
-0.3010 CLOSE </s> -0.3010
-0.3010 COLORS </s> -0.3010
-0.3010 DEFAULT </s> -0.3010
-0.3010 DELETED PICTURES 0.0000
-0.6021 DESTRUCT MODE 0.0000
-0.6021 DESTRUCT ON -0.2430
-0.3010 DISABLE </s> -0.3010
-0.3010 DO WE -0.1761
-0.3010 DOWN </s> -0.3010
-0.3010 EIGHTY </s> -0.3010
-0.3010 ENABLE </s> -0.3010
-0.3010 ENEMY </s> -0.3010
-0.3010 ENGAGE </s> -0.3010
-0.3010 EXWIFE </s> -0.3010
-0.3010 FACEPLATE </s> -0.3010
-0.3010 FIFTY </s> -0.3010
-0.3010 FLASHLIGHT </s> -0.3010
-0.3010 FOR A 0.0000
-0.3010 FORTY </s> -0.3010
-0.3010 GREEN </s> -0.3010
-0.3010 HACK INTO 0.0000
-0.3010 HAVE TIME -0.1761
-0.3010 HELM </s> -0.3010
-0.3010 HELMET </s> -0.3010
-0.3010 HELP THIS -0.2218
-0.3010 HOT </s> -0.3010
-0.3010 HUNDRED </s> -0.3010
-0.3010 I STOP 0.0000
-0.3010 INCLUDE DELETED 0.0000
-0.3010 INDIGO </s> -0.3010
-0.3010 INITIATE SELF 0.0000
-0.3010 INTO THIS -0.2218
-0.3010 IS IT 0.0000
-0.3010 IT </s> -0.3010
-0.3010 JARVIS </s> -0.3010
-0.3010 LATE </s> -0.3010
-0.3010 LID </s> -0.3010
-0.9031 LIGHTS OFF 0.0000
-0.9031 LIGHTS ON -0.0969
-0.6021 LIGHTS TO 0.0000
-0.3010 MAKE US 0.0000
-0.3010 MODE </s> -0.3010
-0.3010 MUTE </s> -0.3010
-0.3010 NINETY </s> -0.3010
-0.3010 OFF </s> -0.3010
-0.4260 ON </s> -0.3010
-0.9031 ON THEIR -0.2218
-0.3010 ONE HUNDRED 0.0000
-0.3010 OPEN LID 0.0000
-0.3010 ORANGE </s> -0.3010
-0.3010 PARTY MODE 0.0000
-0.6021 PERCENT </s> -0.3010
-0.6021 PERCENT BRIGHTNESS 0.0000
-0.3010 PERSON WITH 0.0000
-0.3010 PERSONS PHONE -0.1761
-0.6021 PHONE </s> -0.3010
-0.6021 PHONE RECORDS 0.0000
-0.3010 PHOTO </s> -0.3010
-0.3010 PICTURES AND -0.1761
-0.3010 POWER OFF 0.0000
-0.3010 REBOOT </s> -0.3010
-0.3010 RECORDS </s> -0.3010
-0.3010 RED </s> -0.3010
-0.3010 RELAX </s> -0.3010
-0.3010 SELF DESTRUCT 0.0000
-0.6021 SET LIGHTS -0.1761
-0.6021 SET THE -0.0969
-0.3010 SEVENTY </s> -0.3010
-0.3010 SHUTDOWN </s> -0.3010
-0.3010 SIXTY </s> -0.3010
-0.3010 SPOTTED </s> -0.3010
-0.3010 STAND DOWN 0.0000
-0.3010 STOP AND -0.1761
-0.3010 TAKE A 0.0000
-0.3010 TEN PERCENT -0.1761
-0.3010 THANKS </s> -0.3010
-0.4260 THE LIGHTS 0.0000
-0.9031 THE UNIBEAM 0.0000
-0.4771 THEIR CAMERA 0.0000
-0.7782 THEIR PHONE -0.1761
-0.3010 THIRTY </s> -0.3010
-0.7782 THIS MAKE 0.0000
-0.7782 THIS PERSON 0.0000
-0.7782 THIS PERSONS 0.0000
-0.6021 TIME FOR 0.0000
-0.6021 TIME IS 0.0000
-0.6021 TO PERCENT -0.1761
-0.6021 TO RED 0.0000
-0.4771 TURN THE -0.0969
-0.7782 TURN THEIR -0.1249
-0.3010 TWENTY </s> -0.3010
-0.3010 UNIBEAM </s> -0.3010
-0.3010 UNMUTE </s> -0.3010
-0.3010 UP </s> -0.3010
-0.3010 US LATE 0.0000
-0.3010 VIDEOS </s> -0.3010
-0.3010 VIOLET </s> -0.3010
-0.3010 VOLUME </s> -0.3010
-0.6021 WE HAVE 0.0000
-0.6021 WE LATE 0.0000
-0.3010 WHAT TIME -0.1761
-0.3010 WHITE </s> -0.3010
-0.3010 WILL THIS -0.2218
-0.3010 WITH THEIR -0.1249
-0.3010 YELLOW </s> -0.3010
-0.3010 YOU HELP 0.0000

\3-grams:
-0.3010 <s> ACTIVATE PARTY
-0.3010 <s> ARE WE
-0.3010 <s> BATTLE MODE
-0.3010 <s> BLUE </s>
-0.3010 <s> BOGEY SPOTTED
-0.6021 <s> CAN I
-0.6021 <s> CAN YOU
-0.3010 <s> CHARGE THE
-0.3010 <s> CLOSE </s>
-0.3010 <s> COLORS </s>
-0.3010 <s> DEFAULT </s>
-0.3010 <s> DISABLE </s>
-0.3010 <s> DO WE
-0.3010 <s> DOWN </s>
-0.3010 <s> EIGHTY </s>
-0.3010 <s> ENABLE </s>
-0.3010 <s> ENEMY </s>
-0.3010 <s> ENGAGE </s>
-0.3010 <s> EXWIFE </s>
-0.3010 <s> FACEPLATE </s>
-0.3010 <s> FIFTY </s>
-0.3010 <s> FLASHLIGHT </s>
-0.3010 <s> FORTY </s>
-0.3010 <s> GREEN </s>
-0.3010 <s> HACK INTO
-0.3010 <s> HELM </s>
-0.3010 <s> HELMET </s>
-0.3010 <s> HOT </s>
-0.3010 <s> INCLUDE DELETED
-0.3010 <s> INDIGO </s>
-0.3010 <s> INITIATE SELF
-0.3010 <s> JARVIS </s>
-0.3010 <s> MUTE </s>
-0.3010 <s> NINETY </s>
-0.3010 <s> ON </s>
-0.3010 <s> ONE HUNDRED
-0.3010 <s> OPEN LID
-0.3010 <s> ORANGE </s>
-0.3010 <s> POWER OFF
-0.3010 <s> REBOOT </s>
-0.3010 <s> RELAX </s>
-0.6021 <s> SET LIGHTS
-0.6021 <s> SET THE
-0.3010 <s> SEVENTY </s>
-0.3010 <s> SHUTDOWN </s>
-0.3010 <s> SIXTY </s>
-0.3010 <s> STAND DOWN
-0.3010 <s> TEN PERCENT
-0.3010 <s> THANKS </s>
-0.3010 <s> THIRTY </s>
-0.4771 <s> TURN THE
-0.7782 <s> TURN THEIR
-0.3010 <s> TWENTY </s>
-0.3010 <s> UNIBEAM </s>
-0.3010 <s> UNMUTE </s>
-0.3010 <s> UP </s>
-0.3010 <s> VIOLET </s>
-0.3010 <s> VOLUME </s>
-0.3010 <s> WHAT TIME
-0.3010 <s> WHITE </s>
-0.3010 <s> WILL THIS
-0.3010 <s> YELLOW </s>
-0.3010 A PHOTO </s>
-0.3010 ACTIVATE PARTY MODE
-0.3010 AND TAKE A
-0.3010 AND VIDEOS </s>
-0.3010 ARE WE LATE
-0.3010 BATTLE MODE </s>
-0.3010 BOGEY SPOTTED </s>
-0.3010 CAMERA ON </s>
-0.3010 CAN I STOP
-0.3010 CAN YOU HELP
-0.3010 CHARGE THE UNIBEAM
-0.3010 DELETED PICTURES AND
-0.3010 DESTRUCT MODE </s>
-0.3010 DESTRUCT ON THEIR
-0.3010 DO WE HAVE
-0.3010 FOR A PHOTO
-0.3010 HACK INTO THIS
-0.3010 HAVE TIME FOR
-0.3010 HELP THIS PERSON
-0.3010 I STOP AND
-0.3010 INCLUDE DELETED PICTURES
-0.3010 INITIATE SELF DESTRUCT
-0.3010 INTO THIS PERSONS
-0.3010 IS IT </s>
-0.3010 LIGHTS OFF </s>
-0.3010 LIGHTS ON </s>
-0.6021 LIGHTS TO PERCENT
-0.6021 LIGHTS TO RED
-0.3010 MAKE US LATE
-0.3010 ON THEIR PHONE
-0.3010 ONE HUNDRED </s>
-0.3010 OPEN LID </s>
-0.3010 PARTY MODE </s>
-0.3010 PERCENT BRIGHTNESS </s>
-0.3010 PERSON WITH THEIR
-0.3010 PERSONS PHONE RECORDS
-0.3010 PHONE RECORDS </s>
-0.3010 PICTURES AND VIDEOS
-0.3010 POWER OFF </s>
-0.6021 SELF DESTRUCT MODE
-0.6021 SELF DESTRUCT ON
-0.3010 SET LIGHTS TO
-0.3010 SET THE LIGHTS
-0.3010 STAND DOWN </s>
-0.3010 STOP AND TAKE
-0.3010 TAKE A PHOTO
-0.3010 TEN PERCENT </s>
-0.7782 THE LIGHTS OFF
-0.7782 THE LIGHTS ON
-0.7782 THE LIGHTS TO
-0.3010 THE UNIBEAM </s>
-0.6021 THEIR CAMERA </s>
-0.6021 THEIR CAMERA ON
-0.3010 THEIR PHONE </s>
-0.3010 THIS MAKE US
-0.3010 THIS PERSON WITH
-0.3010 THIS PERSONS PHONE
-0.3010 TIME FOR A
-0.3010 TIME IS IT
-0.3010 TO PERCENT BRIGHTNESS
-0.3010 TO RED </s>
-0.3010 TURN THE LIGHTS
-0.3010 TURN THEIR CAMERA
-0.3010 US LATE </s>
-0.3010 WE HAVE TIME
-0.3010 WE LATE </s>
-0.3010 WHAT TIME IS
-0.3010 WILL THIS MAKE
-0.3010 WITH THEIR CAMERA
-0.3010 YOU HELP THIS

\end\
