Language model created by QuickLM on Mon Aug 10 23:28:27 EDT 2015
Copyright (c) 1996-2010 Carnegie Mellon University and Alexander I. Rudnicky

The model is in standard ARPA format, designed by Doug Paul while he was at MITRE.

The code that was used to produce this language model is available in Open Source.
Please visit http://www.speech.cs.cmu.edu/tools/ for more information

The (fixed) discount mass is 0.5. The backoffs are computed using the ratio method.
This model based on a corpus of 37 sentences and 51 words

\data\
ngram 1=51
ngram 2=91
ngram 3=62

\1-grams:
-0.8727 </s> -0.3010
-0.8727 <s> -0.2330
-2.4409 ACTIVATE -0.2995
-2.4409 BATTLE -0.2979
-2.4409 BLUE -0.2385
-2.4409 BOGEY -0.2995
-2.4409 BRING -0.2947
-2.4409 CLOSE -0.2979
-2.4409 DISABLE -0.2385
-2.4409 ENABLE -0.2385
-2.4409 ENEMY -0.2385
-2.4409 ENGAGE -0.2385
-2.4409 FACEPLATE -0.2385
-2.4409 FULL -0.2385
-2.4409 GREEN -0.2385
-2.4409 HALF -0.2385
-2.4409 HELM -0.2385
-2.4409 HELMET -0.2385
-2.4409 INDIGO -0.2385
-2.4409 IS -0.2995
-2.4409 IT -0.2385
-2.4409 JARVIS -0.2385
-2.1399 LID -0.2385
-1.8388 LIGHTS -0.2915
-2.4409 MAX -0.2979
-2.1399 MODE -0.2385
-2.4409 MUTE -0.2385
-2.1399 OFF -0.2385
-2.1399 ON -0.2385
-2.4409 OPEN -0.2979
-2.4409 ORANGE -0.2385
-2.4409 PARTY -0.2979
-2.1399 POWER -0.2349
-2.1399 QUARTER -0.2385
-2.4409 REBOOT -0.2385
-2.4409 RED -0.2385
-2.4409 RELAX -0.2385
-2.4409 SET -0.2947
-2.4409 SPOTTED -0.2385
-2.4409 TAKE -0.2385
-1.8388 THE -0.2915
-2.4409 THREE -0.2979
-2.1399 TIME -0.2367
-2.1399 TO -0.2979
-2.1399 TURN -0.2947
-2.4409 VIOLET -0.2385
-2.4409 VOLUME -0.2385
-2.4409 WHAT -0.2979
-2.4409 WHATS -0.2947
-2.4409 WHITE -0.2385
-2.4409 YELLOW -0.2385

\2-grams:
-1.8692 <s> ACTIVATE 0.0000
-1.8692 <s> BATTLE 0.0000
-1.8692 <s> BLUE 0.0000
-1.8692 <s> BOGEY 0.0000
-1.8692 <s> BRING 0.0000
-1.8692 <s> CLOSE 0.0000
-1.8692 <s> DISABLE 0.0000
-1.8692 <s> ENABLE 0.0000
-1.8692 <s> ENEMY 0.0000
-1.8692 <s> ENGAGE 0.0000
-1.8692 <s> FACEPLATE 0.0000
-1.8692 <s> FULL 0.0000
-1.8692 <s> GREEN 0.0000
-1.8692 <s> HALF 0.0000
-1.8692 <s> HELM 0.0000
-1.8692 <s> HELMET 0.0000
-1.8692 <s> INDIGO 0.0000
-1.8692 <s> JARVIS 0.0000
-1.8692 <s> MUTE 0.0000
-1.8692 <s> ON 0.0000
-1.8692 <s> OPEN 0.0000
-1.8692 <s> ORANGE 0.0000
-1.8692 <s> POWER -0.1761
-1.8692 <s> QUARTER 0.0000
-1.8692 <s> REBOOT 0.0000
-1.8692 <s> RELAX 0.0000
-1.8692 <s> SET 0.0000
-1.8692 <s> TAKE 0.0000
-1.8692 <s> THREE 0.0000
-1.5682 <s> TURN 0.0000
-1.8692 <s> VIOLET 0.0000
-1.8692 <s> VOLUME 0.0000
-1.8692 <s> WHAT 0.0000
-1.8692 <s> WHATS 0.0000
-1.8692 <s> WHITE 0.0000
-1.8692 <s> YELLOW 0.0000
-0.3010 ACTIVATE PARTY 0.0000
-0.3010 BATTLE MODE 0.0000
-0.3010 BLUE </s> -0.3010
-0.3010 BOGEY SPOTTED 0.0000
-0.3010 BRING THE -0.0969
-0.3010 CLOSE LID 0.0000
-0.3010 DISABLE </s> -0.3010
-0.3010 ENABLE </s> -0.3010
-0.3010 ENEMY </s> -0.3010
-0.3010 ENGAGE </s> -0.3010
-0.3010 FACEPLATE </s> -0.3010
-0.3010 FULL </s> -0.3010
-0.3010 GREEN </s> -0.3010
-0.3010 HALF </s> -0.3010
-0.3010 HELM </s> -0.3010
-0.3010 HELMET </s> -0.3010
-0.3010 INDIGO </s> -0.3010
-0.3010 IS IT 0.0000
-0.3010 IT </s> -0.3010
-0.3010 JARVIS </s> -0.3010
-0.3010 LID </s> -0.3010
-0.9031 LIGHTS OFF 0.0000
-0.9031 LIGHTS ON 0.0000
-0.6021 LIGHTS TO 0.0000
-0.3010 MAX POWER -0.1761
-0.3010 MODE </s> -0.3010
-0.3010 MUTE </s> -0.3010
-0.3010 OFF </s> -0.3010
-0.3010 ON </s> -0.3010
-0.3010 OPEN LID 0.0000
-0.3010 ORANGE </s> -0.3010
-0.3010 PARTY MODE 0.0000
-0.6021 POWER </s> -0.3010
-0.6021 POWER OFF 0.0000
-0.3010 QUARTER </s> -0.3010
-0.3010 REBOOT </s> -0.3010
-0.3010 RED </s> -0.3010
-0.3010 RELAX </s> -0.3010
-0.3010 SET LIGHTS -0.1761
-0.3010 SPOTTED </s> -0.3010
-0.3010 TAKE </s> -0.3010
-0.4260 THE LIGHTS 0.0000
-0.9031 THE TIME -0.1761
-0.3010 THREE QUARTER 0.0000
-0.6021 TIME </s> -0.3010
-0.6021 TIME IS 0.0000
-0.6021 TO MAX 0.0000
-0.6021 TO RED 0.0000
-0.3010 TURN THE -0.0969
-0.3010 VIOLET </s> -0.3010
-0.3010 VOLUME </s> -0.3010
-0.3010 WHAT TIME -0.1761
-0.3010 WHATS THE -0.2430
-0.3010 WHITE </s> -0.3010
-0.3010 YELLOW </s> -0.3010

\3-grams:
-0.3010 <s> ACTIVATE PARTY
-0.3010 <s> BATTLE MODE
-0.3010 <s> BLUE </s>
-0.3010 <s> BOGEY SPOTTED
-0.3010 <s> BRING THE
-0.3010 <s> CLOSE LID
-0.3010 <s> DISABLE </s>
-0.3010 <s> ENABLE </s>
-0.3010 <s> ENEMY </s>
-0.3010 <s> ENGAGE </s>
-0.3010 <s> FACEPLATE </s>
-0.3010 <s> FULL </s>
-0.3010 <s> GREEN </s>
-0.3010 <s> HALF </s>
-0.3010 <s> HELM </s>
-0.3010 <s> HELMET </s>
-0.3010 <s> INDIGO </s>
-0.3010 <s> JARVIS </s>
-0.3010 <s> MUTE </s>
-0.3010 <s> ON </s>
-0.3010 <s> OPEN LID
-0.3010 <s> ORANGE </s>
-0.3010 <s> POWER OFF
-0.3010 <s> QUARTER </s>
-0.3010 <s> REBOOT </s>
-0.3010 <s> RELAX </s>
-0.3010 <s> SET LIGHTS
-0.3010 <s> TAKE </s>
-0.3010 <s> THREE QUARTER
-0.3010 <s> TURN THE
-0.3010 <s> VIOLET </s>
-0.3010 <s> VOLUME </s>
-0.3010 <s> WHAT TIME
-0.3010 <s> WHATS THE
-0.3010 <s> WHITE </s>
-0.3010 <s> YELLOW </s>
-0.3010 ACTIVATE PARTY MODE
-0.3010 BATTLE MODE </s>
-0.3010 BOGEY SPOTTED </s>
-0.3010 BRING THE LIGHTS
-0.3010 CLOSE LID </s>
-0.3010 IS IT </s>
-0.3010 LIGHTS OFF </s>
-0.3010 LIGHTS ON </s>
-0.6021 LIGHTS TO MAX
-0.6021 LIGHTS TO RED
-0.3010 MAX POWER </s>
-0.3010 OPEN LID </s>
-0.3010 PARTY MODE </s>
-0.3010 POWER OFF </s>
-0.3010 SET LIGHTS TO
-0.7782 THE LIGHTS OFF
-0.7782 THE LIGHTS ON
-0.7782 THE LIGHTS TO
-0.3010 THE TIME </s>
-0.3010 THREE QUARTER </s>
-0.3010 TIME IS IT
-0.3010 TO MAX POWER
-0.3010 TO RED </s>
-0.3010 TURN THE LIGHTS
-0.3010 WHAT TIME IS
-0.3010 WHATS THE TIME

\end\
